<?xml version="1.0"?>
<opencv_storage>
<stage5>
  <maxWeakCount>6</maxWeakCount>
  <stageThreshold>-4.4795915484428406e-01</stageThreshold>
  <weakClassifiers>
    <_>
      <internalNodes>
        0 -1 197891 1.3954327441751957e-03</internalNodes>
      <leafValues>
        -6.1943322420120239e-01 6.2640100717544556e-01</leafValues></_>
    <_>
      <internalNodes>
        0 -1 258696 1.4848517253994942e-02</internalNodes>
      <leafValues>
        -7.5455194711685181e-01 4.5814874768257141e-01</leafValues></_>
    <_>
      <internalNodes>
        0 -1 39960 5.3246006369590759e-02</internalNodes>
      <leafValues>
        -5.4144430160522461e-01 5.6194531917572021e-01</leafValues></_>
    <_>
      <internalNodes>
        0 -1 317103 4.9367882311344147e-03</internalNodes>
      <leafValues>
        -4.9839481711387634e-01 6.8061810731887817e-01</leafValues></_>
    <_>
      <internalNodes>
        0 -1 99394 3.5692808032035828e-01</internalNodes>
      <leafValues>
        -5.7116407155990601e-01 5.0046151876449585e-01</leafValues></_>
    <_>
      <internalNodes>
        0 -1 336824 2.1178519353270531e-02</internalNodes>
      <leafValues>
        -8.5068678855895996e-01 2.9597875475883484e-01</leafValues></_></weakClassifiers></stage5>
</opencv_storage>
