<?xml version="1.0"?>
<opencv_storage>
<stage15>
  <maxWeakCount>8</maxWeakCount>
  <stageThreshold>-5.0315254926681519e-01</stageThreshold>
  <weakClassifiers>
    <_>
      <internalNodes>
        0 -1 261273 1.9714094378286973e-05</internalNodes>
      <leafValues>
        -5.7939916849136353e-01 5.9363526105880737e-01</leafValues></_>
    <_>
      <internalNodes>
        0 -1 199537 -2.9850753489881754e-03</internalNodes>
      <leafValues>
        5.6984257698059082e-01 -4.2730185389518738e-01</leafValues></_>
    <_>
      <internalNodes>
        0 -1 370762 -2.8567486442625523e-03</internalNodes>
      <leafValues>
        6.3594746589660645e-01 -4.2120754718780518e-01</leafValues></_>
    <_>
      <internalNodes>
        0 -1 363479 1.2471196241676807e-03</internalNodes>
      <leafValues>
        -3.2580378651618958e-01 7.4507522583007812e-01</leafValues></_>
    <_>
      <internalNodes>
        0 -1 233060 2.1289000287652016e-03</internalNodes>
      <leafValues>
        -2.7732694149017334e-01 7.8812801837921143e-01</leafValues></_>
    <_>
      <internalNodes>
        0 -1 130283 -6.1279465444386005e-03</internalNodes>
      <leafValues>
        7.3768258094787598e-01 -4.0410310029983521e-01</leafValues></_>
    <_>
      <internalNodes>
        0 -1 363651 -1.4534157235175371e-03</internalNodes>
      <leafValues>
        4.2531013488769531e-01 -6.1124962568283081e-01</leafValues></_>
    <_>
      <internalNodes>
        0 -1 251438 -9.1648905072361231e-04</internalNodes>
      <leafValues>
        5.0953525304794312e-01 -4.4288545846939087e-01</leafValues></_></weakClassifiers></stage15>
</opencv_storage>
