<?xml version="1.0"?>
<opencv_storage>
<stage16>
  <maxWeakCount>5</maxWeakCount>
  <stageThreshold>-4.9477407336235046e-01</stageThreshold>
  <weakClassifiers>
    <_>
      <internalNodes>
        0 -1 328897 6.3852416351437569e-03</internalNodes>
      <leafValues>
        -5.5709344148635864e-01 6.7148488759994507e-01</leafValues></_>
    <_>
      <internalNodes>
        0 -1 45092 -4.2425438761711121e-02</internalNodes>
      <leafValues>
        -8.7266242504119873e-01 4.7663542628288269e-01</leafValues></_>
    <_>
      <internalNodes>
        0 -1 114723 4.1818711906671524e-04</internalNodes>
      <leafValues>
        -5.0454115867614746e-01 9.0526968240737915e-01</leafValues></_>
    <_>
      <internalNodes>
        0 -1 89796 1.6835518181324005e-02</internalNodes>
      <leafValues>
        -3.9181849360466003e-01 8.8252317905426025e-01</leafValues></_>
    <_>
      <internalNodes>
        0 -1 17651 3.7663690745830536e-02</internalNodes>
      <leafValues>
        -6.8870288133621216e-01 6.0276311635971069e-01</leafValues></_></weakClassifiers></stage16>
</opencv_storage>
