<?xml version="1.0"?>
<opencv_storage>
<stage10>
  <maxWeakCount>8</maxWeakCount>
  <stageThreshold>-1.0172771215438843e+00</stageThreshold>
  <weakClassifiers>
    <_>
      <internalNodes>
        0 -1 355690 5.3814016282558441e-03</internalNodes>
      <leafValues>
        -5.1327431201934814e-01 5.6553399562835693e-01</leafValues></_>
    <_>
      <internalNodes>
        0 -1 180560 3.3315732143819332e-03</internalNodes>
      <leafValues>
        -4.0396195650100708e-01 5.2768158912658691e-01</leafValues></_>
    <_>
      <internalNodes>
        0 -1 378990 -1.1228045448660851e-02</internalNodes>
      <leafValues>
        3.5797488689422607e-01 -6.0637217760086060e-01</leafValues></_>
    <_>
      <internalNodes>
        0 -1 215383 3.1273313798010349e-03</internalNodes>
      <leafValues>
        -3.1352737545967102e-01 7.3606020212173462e-01</leafValues></_>
    <_>
      <internalNodes>
        0 -1 133101 -3.5359046887606382e-03</internalNodes>
      <leafValues>
        6.9151484966278076e-01 -3.0100771784782410e-01</leafValues></_>
    <_>
      <internalNodes>
        0 -1 318103 2.4539342848584056e-04</internalNodes>
      <leafValues>
        2.6365604996681213e-01 -8.2493788003921509e-01</leafValues></_>
    <_>
      <internalNodes>
        0 -1 218517 -8.1125041469931602e-03</internalNodes>
      <leafValues>
        5.3941679000854492e-01 -3.9367783069610596e-01</leafValues></_>
    <_>
      <internalNodes>
        0 -1 80574 6.7373178899288177e-02</internalNodes>
      <leafValues>
        -7.5104480981826782e-01 2.8654122352600098e-01</leafValues></_></weakClassifiers></stage10>
</opencv_storage>
